{
    "layers": [
      148,
      74,
      37,
      18,
      37,
      74,
      148
    ],
    "activations": [
      "elu",
      "elu",
      "elu",
      "elu",
      "elu"
    ],
    "weights": {
      "Layers.0.weight": [
        [
          -0.039331115782260895,
          -0.03051690384745598,
          0.041251227259635925,
          -0.007399300578981638,
          0.040928784757852554,
          0.06898381561040878,
          0.03943869099020958,
          0.06564595550298691,
          0.06283416599035263,
          -0.10960375517606735,
          0.05430740490555763,
          0.06307526677846909,
          0.12526267766952515,
          0.1316882073879242,
          0.12786732614040375,
          -0.0729636624455452,
          -0.07623163610696793,
          -0.021634241566061974,
          0.0016353261889889836,
          -0.06174471974372864,
          -0.06137968599796295,
          -0.0467124842107296,
          -0.06462141126394272,
          -0.06331028789281845,
          -0.02982301637530327,
          -0.08875473588705063,
          -0.11051174253225327,
          0.008720566518604755,
          0.015044622123241425,
          -0.04666392505168915,
          -0.018106184899806976,
          -0.05639631673693657,
          -0.013138067908585072,
          0.024755047634243965,
          -0.026732856407761574,
          -0.08579138666391373,
          0.07808560132980347,
          0.0018004485173150897,
          0.07783936709165573,
          -0.09866711497306824,
          0.06712369620800018,
          -0.10766440629959106,
          0.07046707719564438,
          0.1550300419330597,
          0.01609790325164795,
          0.07179159671068192,
          0.08564025163650513,
          -0.05936066806316376,
          0.03710223734378815,
          -0.02186358906328678,
          0.1672498732805252,
          -0.02874435856938362,
          0.008981876075267792,
          -0.06570719182491302,
          0.08353244513273239,
          0.012262316420674324,
          0.023517649620771408,
          -0.019350342452526093,
          -0.07539938390254974,
          0.09586437046527863,
          -0.040089212357997894,
          0.06206035614013672,
          0.08720887452363968,
          -0.0006237576017156243,
          0.006998824886977673,
          -0.004803687799721956,
          0.06242621690034866,
          0.009836820885539055,
          -0.04743562638759613,
          0.12981806695461273,
          0.013043919578194618,
          -0.022160567343235016,
          -0.07957182824611664,
          0.10117939114570618,
          -0.011094360612332821,
          0.05771424621343613,
          -0.04804190993309021,
          -0.04699518904089928,
          -0.00679306173697114,
          -0.024101387709379196,
          -0.036747902631759644,
          -0.10246646404266357,
          -0.0022482729982584715,
          -0.13836190104484558,
          0.013153244741261005,
          -0.003313865512609482,
          -0.10206842422485352,
          -0.042393654584884644,
          0.03799821063876152,
          -0.13215000927448273,
          0.04844983294606209,
          0.1184629276394844,
          -0.05161718279123306,
          0.11563751101493835,
          0.07243704050779343,
          -0.011831819079816341,
          -0.025199202820658684,
          -0.004271028097718954,
          -0.06926779448986053,
          0.05871008709073067,
          0.017139261588454247,
          0.003456318052485585,
          0.011025901883840561,
          -0.05224445462226868,
          -0.031838737428188324,
          0.04650447517633438,
          0.11419043689966202,
          -0.01968218758702278,
          0.09457110613584518,
          -0.10054727643728256,
          0.07024334371089935,
          0.04254167899489403,
          -0.0357297882437706,
          -0.0864771232008934,
          -0.11662878096103668,
          -0.003006391227245331,
          0.03806617110967636,
          0.006362318992614746,
          0.04892357066273689,
          -0.08303311467170715,
          -0.03569219633936882,
          0.057236380875110626,
          0.024311883375048637,
          -0.10107553750276566,
          0.12497664988040924,
          -0.04230654612183571,
          0.0468483492732048,
          0.1035771295428276,
          0.01244305819272995,
          0.09390398114919662,
          0.15211240947246552,
          -0.09018485993146896,
          0.05274258553981781,
          -0.10750595480203629,
          0.008410288020968437,
          -0.13618092238903046,
          -0.15005642175674438,
          -0.10107670724391937,
          -0.042635560035705566,
          0.08251038938760757,
          0.02510255202651024,
          0.12241879850625992,
          0.007232949137687683,
          -0.002183557953685522,
          0.0013564506080001593,
          0.06483778357505798,
          0.029232854023575783,
          0.09896504133939743
        ],
        [
          0.10993938148021698,
          0.08778667449951172,
          0.017617017030715942,
          0.02796243689954281,
          -0.06364927440881729,
          -0.04264824464917183,
          0.10107292979955673,
          -0.010213151574134827,
          -0.07985881716012955,
          -0.023462099954485893,
          -0.01711513102054596,
          -0.0027405680157244205,
          -0.11545737087726593,
          -0.09822016209363937,
          -0.03251565992832184,
          -0.05156309902667999,
          -0.07515320926904678,
          -0.07160209119319916,
          -0.004957391880452633,
          -0.11805479973554611,
          -0.048019565641880035,
          0.034886304289102554,
          0.07362615317106247,
          0.07328283041715622,
          0.057160887867212296,
          0.040962621569633484,
          0.11495095491409302,
          0.11446124315261841,
          0.010720553807914257,
          0.17591682076454163,
          0.11220964044332504,
          0.047102175652980804,
          0.12716276943683624,
          0.010112122632563114,
          -0.00685126893222332,
          0.003741655731573701,
          0.06684710830450058,
          0.010469921864569187,
          0.003139384090900421,
          -0.0357966274023056,
          -0.00527664041146636,
          0.09738131612539291,
          -0.18596746027469635,
          -0.09217697381973267,
          0.04283051937818527,
          0.006246272940188646,
          0.0870155617594719,
          0.08976589143276215,
          -0.03941773250699043,
          0.01536843553185463,
          -0.08012235909700394,
          -0.060141898691654205,
          -0.014406261034309864,
          -0.06283944100141525,
          -0.06326743215322495,
          0.04557499662041664,
          -0.049753107130527496,
          -0.015415512956678867,
          0.02336280420422554,
          0.1834498643875122,
          0.08307112753391266,
          0.10264135152101517,
          0.12614689767360687,
          0.09990083426237106,
          0.06740552932024002,
          -0.05169781669974327,
          0.0014376494800671935,
          -0.08182551711797714,
          0.05362281948328018,
          -0.026536406949162483,
          -0.005325027275830507,
          0.041760485619306564,
          0.08123733103275299,
          0.02938941679894924,
          0.07078870385885239,
          -0.010001810267567635,
          0.04128388315439224,
          0.046770356595516205,
          -0.0724850744009018,
          -0.060075871646404266,
          0.09326132386922836,
          0.010479043237864971,
          -0.09457974135875702,
          -0.011331283487379551,
          0.03922462463378906,
          0.09058138728141785,
          0.04172280803322792,
          0.047400277107954025,
          0.055734384804964066,
          0.056636665016412735,
          0.10914240777492523,
          0.09465810656547546,
          0.057003822177648544,
          0.16092224419116974,
          0.05940716713666916,
          0.014783880673348904,
          0.10798870027065277,
          0.14454355835914612,
          0.029824960976839066,
          0.08936343342065811,
          0.12698164582252502,
          0.13653282821178436,
          -0.011619476601481438,
          0.02017342671751976,
          0.09407525509595871,
          -0.05647154152393341,
          0.04398931935429573,
          0.06440934538841248,
          -0.03311264142394066,
          0.10110709071159363,
          -0.020296815782785416,
          0.11803276091814041,
          -0.011784534901380539,
          -0.002845268463715911,
          0.040137674659490585,
          0.01101588737219572,
          0.054281771183013916,
          0.045174743980169296,
          -0.06392554193735123,
          -0.03208808973431587,
          -0.06858935952186584,
          -0.06175340712070465,
          -0.03392764925956726,
          0.0028939719777554274,
          0.06204879656434059,
          0.02548053488135338,
          -0.015054131858050823,
          0.17679965496063232,
          -0.014452643692493439,
          0.1884114146232605,
          0.03767756000161171,
          0.022261004894971848,
          0.028320644050836563,
          -0.03750661760568619,
          0.011715934611856937,
          0.011232592165470123,
          0.01668049953877926,
          0.05413878336548805,
          -0.01273735985159874,
          -0.0017243529437109828,
          0.11508845537900925,
          0.07245640456676483,
          -0.0054411739110946655,
          0.15929128229618073,
          0.12641634047031403,
          0.08121879398822784,
          0.020937025547027588,
          -0.045606229454278946
        ],
        [
          0.10839542001485825,
          0.08611004799604416,
          -0.013237238861620426,
          -0.04137597605586052,
          0.06546194851398468,
          8.744521619519219e-05,
          -0.026263173669576645,
          0.08036179095506668,
          -0.011952030472457409,
          0.05414460599422455,
          0.061681199818849564,
          0.19559164345264435,
          -0.14834091067314148,
          -0.04631100222468376,
          -0.09403146058320999,
          0.08108212798833847,
          0.06982845813035965,
          0.10019765049219131,
          -0.07009885460138321,
          -0.01923154853284359,
          0.004612543620169163,
          -0.011811171658337116,
          -0.003929294180124998,
          0.06581408530473709,
          -0.009248457849025726,
          0.028186382725834846,
          0.023479536175727844,
          -0.02987399883568287,
          0.03686407953500748,
          0.03426017984747887,
          -0.00980919785797596,
          -0.028475463390350342,
          -0.10866181552410126,
          -0.11418665945529938,
          -0.03788186237215996,
          -0.06635411828756332,
          0.0823047086596489,
          0.09527494758367538,
          0.040666911751031876,
          0.0026506884023547173,
          0.030248403549194336,
          -0.029727667570114136,
          -0.01566016860306263,
          0.08664901554584503,
          -0.03133970499038696,
          -0.037999995052814484,
          -0.08209814876317978,
          -0.021135948598384857,
          0.1935182362794876,
          0.11198408156633377,
          0.06773115694522858,
          0.00504770502448082,
          -0.00479330075904727,
          0.10303284227848053,
          -0.13048726320266724,
          -0.09902472048997879,
          -0.14692038297653198,
          -0.0010797688737511635,
          -0.011391672305762768,
          -0.07008016854524612,
          0.015065224841237068,
          -0.04575436934828758,
          -0.08416073024272919,
          0.007521945983171463,
          -0.04880356416106224,
          0.01885874569416046,
          -0.0014390943106263876,
          -0.016972964629530907,
          -0.038665011525154114,
          -0.0437309630215168,
          0.07955244183540344,
          -0.03826291114091873,
          -0.03108402155339718,
          0.05131882429122925,
          0.10072297602891922,
          0.008965138345956802,
          0.06656055152416229,
          0.01951436512172222,
          -0.04345686361193657,
          0.08521237224340439,
          0.008451608009636402,
          0.07290496677160263,
          -0.054267920553684235,
          -0.039360735565423965,
          -0.0034991265274584293,
          0.04603704437613487,
          0.12241936475038528,
          0.07637464255094528,
          0.043760478496551514,
          0.1460200995206833,
          0.09948613494634628,
          -0.056284502148628235,
          0.06529609113931656,
          0.0733439102768898,
          0.05468273535370827,
          0.052933305501937866,
          0.07305870950222015,
          0.0877455621957779,
          0.03140498697757721,
          0.14160948991775513,
          0.12035782635211945,
          0.01791509799659252,
          0.09973427653312683,
          0.023494748398661613,
          0.01715807244181633,
          -0.05072248354554176,
          -0.023243602365255356,
          0.09335419535636902,
          -0.008629352785646915,
          -0.09158922731876373,
          0.10816984623670578,
          -0.04438166692852974,
          0.04678070917725563,
          -0.005187650211155415,
          0.05354876071214676,
          0.016547374427318573,
          0.2081809937953949,
          0.02092425338923931,
          0.0635577142238617,
          0.08203040808439255,
          0.03775518760085106,
          -0.05713123828172684,
          0.02819160744547844,
          0.10675423592329025,
          0.23186296224594116,
          0.09994234144687653,
          0.06556163728237152,
          0.12001539021730423,
          0.17795680463314056,
          0.07701639831066132,
          0.12272512912750244,
          0.0934235155582428,
          0.03828190639615059,
          -0.00991679634898901,
          0.07328509539365768,
          0.04754160717129707,
          0.013228783383965492,
          -0.03465065732598305,
          -0.04194910079240799,
          0.005803929641842842,
          -0.06913206726312637,
          -0.03568000718951225,
          -0.05447772145271301,
          -0.0916038230061531,
          -0.06295327842235565,
          0.006145551800727844,
          -0.10469545423984528,
          0.12610222399234772
        ],
        [
          0.04591125249862671,
          0.12439068406820297,
          0.0279881302267313,
          -0.02449093945324421,
          0.04616468772292137,
          0.08254045248031616,
          -0.008407450281083584,
          0.08120342344045639,
          0.1310809850692749,
          -0.033909473568201065,
          0.06031768396496773,
          0.0028374665416777134,
          -0.03378557413816452,
          -0.054187219589948654,
          0.10130399465560913,
          0.1364486962556839,
          0.033692073076963425,
          0.1770474761724472,
          0.07273302227258682,
          0.09014254808425903,
          -0.06683941185474396,
          -0.0741611048579216,
          0.06636282056570053,
          -0.0028108765836805105,
          0.06235911324620247,
          0.09554765373468399,
          0.032410938292741776,
          0.019149290397763252,
          -0.012059012427926064,
          -0.06868650019168854,
          -0.022465014830231667,
          -0.0014531612396240234,
          0.011049496941268444,
          -0.07829130440950394,
          0.0478176586329937,
          0.06283009797334671,
          0.02201819233596325,
          0.07139662653207779,
          0.04576071351766586,
          0.08426609635353088,
          -0.029164563864469528,
          0.12791454792022705,
          0.05521966144442558,
          0.01631000265479088,
          0.12531906366348267,
          -0.010382872074842453,
          0.024263905361294746,
          0.0411907322704792,
          0.0884743332862854,
          0.11249755322933197,
          0.038347259163856506,
          -0.02118261158466339,
          0.11656375974416733,
          0.09203796833753586,
          0.10049278289079666,
          0.12443027645349503,
          0.11838219314813614,
          0.10886189341545105,
          0.07754182815551758,
          0.06214345246553421,
          0.06587370485067368,
          -0.010218148119747639,
          0.04995950311422348,
          0.002547699259594083,
          0.024141743779182434,
          0.03228306770324707,
          -5.416394560597837e-05,
          -0.06565610319375992,
          0.06531054526567459,
          0.02614510990679264,
          -0.03904148191213608,
          -0.02328915148973465,
          0.10554482042789459,
          -0.04896845296025276,
          0.10391328483819962,
          0.01234974805265665,
          -0.052740730345249176,
          0.0488707534968853,
          0.10904049873352051,
          -0.04515349864959717,
          -0.0603288859128952,
          -0.030662935227155685,
          0.1552952080965042,
          0.032378729432821274,
          0.03896893188357353,
          0.10232919454574585,
          0.06411296874284744,
          -0.04758189246058464,
          -0.026395205408334732,
          0.04404328763484955,
          -0.0004856792511418462,
          -0.028522616252303123,
          -0.05077701061964035,
          0.0581197515130043,
          0.0607287771999836,
          -0.08643077313899994,
          0.02165914699435234,
          0.018818136304616928,
          0.02614714205265045,
          -0.03960451856255531,
          0.08519341796636581,
          0.025411074981093407,
          0.06473442167043686,
          -0.20988138020038605,
          -0.037950754165649414,
          -0.01793491095304489,
          -0.03638443723320961,
          0.026134487241506577,
          0.07088169455528259,
          0.12188923358917236,
          0.036278437823057175,
          0.048154473304748535,
          -0.023857686668634415,
          -0.012359799817204475,
          -0.08172059804201126,
          0.028973449021577835,
          0.13690875470638275,
          -0.02797437272965908,
          0.0013295112876221538,
          0.06693195551633835,
          -0.055217672139406204,
          0.016610780730843544,
          0.1135856956243515,
          0.028362849727272987,
          -0.025938166305422783,
          -0.013394046574831009,
          0.1296701580286026,
          0.07618974894285202,
          0.09092027693986893,
          0.051160912960767746,
          0.014919770881533623,
          0.011433441191911697,
          0.03402182459831238,
          0.04537109658122063,
          0.025490853935480118,
          -0.006939422804862261,
          0.012256298214197159,
          -0.003481844672933221,
          -0.029208015650510788,
          0.08010856062173843,
          -0.08637021481990814,
          0.006992271635681391,
          -0.02902473509311676,
          0.04801163449883461,
          0.003061244497075677,
          0.004182697739452124,
          0.11167531460523605,
          0.032910626381635666
        ],
        [
          0.08537019044160843,
          0.05639784038066864,
          0.02587617188692093,
          -0.018918905407190323,
          0.059427499771118164,
          -0.05057981237769127,
          -0.08759228885173798,
          0.09841930866241455,
          -0.07389575988054276,
          0.025379253551363945,
          -0.008623050525784492,
          0.044795747846364975,
          0.004560802131891251,
          -0.023973746225237846,
          -0.06205957010388374,
          0.11420813202857971,
          -0.028165627270936966,
          -0.0579468309879303,
          0.027797887101769447,
          -0.0831834077835083,
          -0.03698418661952019,
          -0.11158568412065506,
          -0.053209368139505386,
          -0.013529092073440552,
          -0.06726911664009094,
          -0.07260936498641968,
          -0.04970574006438255,
          -0.02463468722999096,
          0.009006844833493233,
          -0.028689760714769363,
          -0.04681423678994179,
          0.009350374341011047,
          0.019853124395012856,
          -0.027387337759137154,
          0.06750087440013885,
          0.04815618693828583,
          0.06623245775699615,
          0.011324522085487843,
          -0.042261287569999695,
          0.11936960369348526,
          0.08914948254823685,
          -0.028151879087090492,
          0.012489301152527332,
          0.09565375745296478,
          0.11339657008647919,
          -0.04469393193721771,
          -0.005564065184444189,
          0.016379233449697495,
          0.03995244950056076,
          0.05621488019824028,
          -0.13913755118846893,
          -0.010405932553112507,
          0.08806059509515762,
          0.09605623781681061,
          0.0032242522574961185,
          0.036279674619436264,
          -0.08492482453584671,
          0.196562260389328,
          0.11611047387123108,
          0.06586915254592896,
          0.19637763500213623,
          0.13164882361888885,
          0.20400245487689972,
          0.15319868922233582,
          0.216767355799675,
          0.06638465076684952,
          -0.08821304142475128,
          -0.06401313841342926,
          0.06271273642778397,
          0.013652505353093147,
          0.0167438555508852,
          -0.07121440023183823,
          0.02652052417397499,
          0.05514591187238693,
          -0.05792234092950821,
          -0.049482256174087524,
          0.05504894629120827,
          0.009375002235174179,
          -0.05955933779478073,
          -0.012399664148688316,
          0.0650172010064125,
          -0.07982703298330307,
          0.04328920692205429,
          0.05562129616737366,
          0.06707195192575455,
          -0.009520853869616985,
          0.1959802359342575,
          0.16429108381271362,
          0.10232658684253693,
          -0.003161236410960555,
          0.14223648607730865,
          0.03790891915559769,
          0.09783883392810822,
          0.0527130551636219,
          0.17906829714775085,
          0.01010123360902071,
          0.03369385376572609,
          0.08053504675626755,
          0.17001385986804962,
          0.03689958527684212,
          0.13228961825370789,
          0.09728413075208664,
          -0.057283319532871246,
          -0.12729324400424957,
          -0.037912771105766296,
          -0.07817503809928894,
          -0.05333704128861427,
          -0.010267292149364948,
          -0.07141342014074326,
          -0.04014433175325394,
          0.01170336827635765,
          0.011132524348795414,
          0.0066066631115973,
          0.061218395829200745,
          -0.042902879416942596,
          -0.005267130210995674,
          0.04579723998904228,
          0.06561370193958282,
          -0.008304927498102188,
          -0.037066228687763214,
          0.05302060395479202,
          -0.08986984938383102,
          -0.07699447870254517,
          0.1696668416261673,
          0.22254659235477448,
          0.20144766569137573,
          -0.014352453872561455,
          0.10289734601974487,
          0.020051991567015648,
          0.15258178114891052,
          0.09961322695016861,
          -0.03938896954059601,
          -0.08802391588687897,
          0.012514207512140274,
          -0.08704981207847595,
          -0.034672677516937256,
          -0.05229690298438072,
          -0.03033691644668579,
          0.0065543195232748985,
          -0.01345052570104599,
          -0.0294241551309824,
          0.14517837762832642,
          -0.06507065892219543,
          0.05114338919520378,
          -0.08171200007200241,
          0.027074845507740974,
          -0.07750078290700912,
          0.06451259553432465
        ],
        [
          0.09741247445344925,
          0.07269438356161118,
          -0.03425315022468567,
          0.006304420530796051,
          0.079631507396698,
          0.23096637427806854,
          0.08459913730621338,
          0.15775340795516968,
          -0.14057807624340057,
          0.21251821517944336,
          -0.033445972949266434,
          0.014013955369591713,
          -0.054854072630405426,
          0.09591685980558395,
          0.059342317283153534,
          0.208773672580719,
          0.20009271800518036,
          0.13346996903419495,
          0.13757362961769104,
          0.09956439584493637,
          -0.021674562245607376,
          0.04881152883172035,
          -0.008187700062990189,
          0.1094493642449379,
          0.12620840966701508,
          0.04081977531313896,
          0.032808102667331696,
          0.0630471408367157,
          -0.027450991794466972,
          -0.0012387598399072886,
          0.058858584612607956,
          0.004753045737743378,
          0.15419839322566986,
          -0.06096818670630455,
          0.012915215454995632,
          0.08909456431865692,
          0.09227807819843292,
          0.10742465406656265,
          0.02980201318860054,
          0.13126792013645172,
          -0.01878604106605053,
          0.13171716034412384,
          0.08811590820550919,
          -0.0790131613612175,
          0.2211875021457672,
          0.04180312901735306,
          0.15213270485401154,
          0.06268136948347092,
          0.11819576472043991,
          -0.07808513939380646,
          0.017510242760181427,
          0.08546137064695358,
          0.15879622101783752,
          -0.013473332859575748,
          -0.02843407168984413,
          0.09778141975402832,
          0.11590936779975891,
          0.0919690728187561,
          0.1810518503189087,
          0.06948167085647583,
          0.14475670456886292,
          0.030755503103137016,
          0.15608949959278107,
          0.10697275400161743,
          0.15507398545742035,
          0.12530262768268585,
          -0.055918727070093155,
          -0.11398933827877045,
          0.05406663566827774,
          -0.07999838888645172,
          -0.08905082195997238,
          0.04436282813549042,
          0.06667905300855637,
          0.13380609452724457,
          0.04645515978336334,
          0.09098295122385025,
          0.05750590190291405,
          -0.03129947930574417,
          0.07690780609846115,
          0.06619353592395782,
          -0.0166391022503376,
          0.20703044533729553,
          0.010945577174425125,
          0.10852093994617462,
          0.008969682268798351,
          0.010437226854264736,
          -0.019957900047302246,
          0.02282932586967945,
          -0.011522543616592884,
          0.2344796508550644,
          -0.008611561730504036,
          0.024912303313612938,
          0.12234263867139816,
          0.05189168453216553,
          0.013833947479724884,
          0.04943052679300308,
          0.11780257523059845,
          0.15686281025409698,
          0.04751915484666824,
          0.09792996197938919,
          0.13976812362670898,
          0.10540443658828735,
          0.08157660812139511,
          0.006367481779307127,
          0.06172099709510803,
          -0.030425403267145157,
          0.05062340945005417,
          -0.045869991183280945,
          0.14335958659648895,
          0.011148513294756413,
          0.06921140849590302,
          0.08210688829421997,
          0.04780229181051254,
          0.0351439043879509,
          0.15412457287311554,
          0.06460130959749222,
          0.061095528304576874,
          0.043770682066679,
          0.12264843285083771,
          -0.09885223954916,
          0.02883129194378853,
          0.01924249902367592,
          0.06550689041614532,
          -0.07691742479801178,
          -0.0936616063117981,
          -0.12250705063343048,
          0.053927622735500336,
          0.13173504173755646,
          -0.06246092543005943,
          0.1086001992225647,
          0.06551901996135712,
          0.10059706121683121,
          0.20219837129116058,
          0.23274891078472137,
          0.11613546311855316,
          0.1623927354812622,
          0.12425250560045242,
          0.1223166286945343,
          0.09772055596113205,
          0.1102900579571724,
          -0.008084220811724663,
          0.0394737683236599,
          -0.06849506497383118,
          0.17268800735473633,
          0.027963243424892426,
          -0.022394342347979546,
          0.06887940317392349,
          0.02595650777220726
        ],
        [
          0.08904924243688583,
          0.00023056099598761648,
          0.06496329605579376,
          -0.05367720127105713,
          0.05863073468208313,
          0.1941404938697815,
          -0.03989129886031151,
          -0.04583220183849335,
          0.07349761575460434,
          0.19203557074069977,
          0.09221392124891281,
          -0.08217460662126541,
          0.03350595757365227,
          0.14394059777259827,
          0.04552559182047844,
          -0.0028965938836336136,
          0.15588779747486115,
          0.054418642073869705,
          0.15717674791812897,
          0.1006711944937706,
          -0.14689069986343384,
          -0.06429187208414078,
          -0.10619658976793289,
          -0.0849701464176178,
          -0.14688260853290558,
          -0.14468947052955627,
          -0.18783067166805267,
          -0.11769706755876541,
          0.06136337295174599,
          -0.14924205839633942,
          0.00998749677091837,
          0.07197713106870651,
          0.04958486557006836,
          -0.08336424082517624,
          0.08434897661209106,
          -0.0349024273455143,
          0.14408555626869202,
          -0.04624276980757713,
          -0.005052189342677593,
          0.07807810604572296,
          0.022166159003973007,
          0.011541644111275673,
          0.019747624173760414,
          -0.030387960374355316,
          0.04101201146841049,
          0.09676160663366318,
          0.19312715530395508,
          0.130575031042099,
          -0.011995639652013779,
          0.049879368394613266,
          0.056813422590494156,
          0.05620180815458298,
          0.026866618543863297,
          -0.03134314715862274,
          -0.052065473049879074,
          0.11930227279663086,
          0.03712819516658783,
          0.06010473147034645,
          0.09825760871171951,
          0.018580559641122818,
          0.11313875764608383,
          0.05854039639234543,
          0.18352656066417694,
          0.02166682295501232,
          0.12298532575368881,
          0.0477299802005291,
          -0.09094719588756561,
          -0.004795405548065901,
          -0.016807757318019867,
          -0.05163347348570824,
          -0.07202300429344177,
          0.07753682136535645,
          0.01653827354311943,
          0.012372893281280994,
          0.05839201435446739,
          0.07775069028139114,
          -0.06174255907535553,
          0.05093822628259659,
          0.08072163909673691,
          -0.03658895567059517,
          -0.06159823760390282,
          -0.027017878368496895,
          0.12761171162128448,
          0.13023017346858978,
          0.09649253636598587,
          -0.14721734821796417,
          0.00811001192778349,
          0.1583019196987152,
          0.0802319124341011,
          0.12424688041210175,
          -0.027055514976382256,
          0.072181835770607,
          0.164861798286438,
          0.0881100744009018,
          0.03931650146842003,
          0.004138099495321512,
          0.12931624054908752,
          0.012805295176804066,
          0.040230393409729004,
          0.13648630678653717,
          0.11638841032981873,
          0.04916117712855339,
          0.013443206436932087,
          -0.09901158511638641,
          0.03778883069753647,
          0.0690736249089241,
          -0.04545343667268753,
          -0.04151744022965431,
          0.07628387212753296,
          0.012048284523189068,
          0.0942411944270134,
          0.02398223802447319,
          0.007647108286619186,
          -0.026047365739941597,
          -0.04335297271609306,
          0.037098467350006104,
          0.007129942532628775,
          -0.04550322890281677,
          0.0567798912525177,
          0.15501219034194946,
          0.0736866295337677,
          0.04211627319455147,
          -0.08679582178592682,
          -0.011578245088458061,
          0.027762359008193016,
          -0.0215151384472847,
          0.017986709251999855,
          -0.054559022188186646,
          -0.07247327268123627,
          0.02331104874610901,
          0.041469767689704895,
          0.004205611534416676,
          0.01589183509349823,
          0.07026258856058121,
          0.06937600672245026,
          0.05785176530480385,
          0.10902933031320572,
          0.029344258829951286,
          0.04042608663439751,
          0.01855645328760147,
          0.020374231040477753,
          -0.0027792227920144796,
          0.03010505437850952,
          0.06669789552688599,
          -0.019072696566581726,
          0.02975510247051716,
          -0.03674222528934479,
          -0.010300612077116966
        ],
        [
          0.08238574862480164,
          0.03529011830687523,
          0.06605824828147888,
          0.005785372573882341,
          0.08946896344423294,
          0.17015978693962097,
          -0.10921473801136017,
          0.00397201394662261,
          0.07336856424808502,
          -0.043116386979818344,
          0.10432702302932739,
          -0.004959678277373314,
          -0.11377763003110886,
          -0.08524225652217865,
          -0.14917485415935516,
          0.03996353968977928,
          -0.012419436126947403,
          0.0030334461480379105,
          -0.09436290711164474,
          -0.0402810275554657,
          -0.09721352159976959,
          -0.044617824256420135,
          -0.17761701345443726,
          -0.082755446434021,
          -0.128912553191185,
          -0.07386235147714615,
          -0.028872745111584663,
          -0.04556979238986969,
          0.11887215822935104,
          -0.0020170577336102724,
          0.0022868234664201736,
          0.03965671360492706,
          -0.0626787394285202,
          -0.05734606832265854,
          0.06196768954396248,
          0.05331765487790108,
          0.05002124235033989,
          0.03758566454052925,
          0.017723094671964645,
          0.012527627870440483,
          0.02493257075548172,
          -0.016637515276670456,
          -0.09645069390535355,
          0.027827991172671318,
          0.08398064225912094,
          0.07764609158039093,
          0.04402029141783714,
          0.03453044593334198,
          0.02010592818260193,
          -0.10595893114805222,
          -0.14179949462413788,
          -0.17030009627342224,
          -0.034076936542987823,
          0.05840183049440384,
          0.07937861233949661,
          -0.05401914194226265,
          0.017619622871279716,
          0.05345092713832855,
          0.11880411952733994,
          0.09534823149442673,
          0.06104985252022743,
          0.0803339034318924,
          0.008146659471094608,
          -0.013363491743803024,
          0.0013382859760895371,
          -0.011486643925309181,
          0.027500728145241737,
          0.013079000636935234,
          0.0006372034549713135,
          -0.039673417806625366,
          0.024248290807008743,
          0.05532343313097954,
          0.0030486786272376776,
          0.02865001931786537,
          0.11699232459068298,
          0.07744704931974411,
          0.01330697163939476,
          -0.046107254922389984,
          -0.014644118957221508,
          0.048571813851594925,
          -0.07186787575483322,
          -0.07015330344438553,
          0.09135647118091583,
          -0.02555837668478489,
          0.11236580461263657,
          -0.04783100634813309,
          -0.0012272587046027184,
          -0.09550584852695465,
          0.041520796716213226,
          -0.08260880410671234,
          0.15677182376384735,
          0.072481170296669,
          0.017026249319314957,
          0.04140198603272438,
          -0.016633642837405205,
          -0.012311995960772038,
          -0.09162449836730957,
          -0.047743771225214005,
          -0.078150674700737,
          -0.06820287555456161,
          0.020010486245155334,
          -0.1106504425406456,
          0.05862003192305565,
          -0.0161077082157135,
          -0.12034765630960464,
          0.06653555482625961,
          -0.10993725806474686,
          -0.03138371556997299,
          -0.0028111920692026615,
          0.052142009139060974,
          -0.027949849143624306,
          -0.01423568744212389,
          -0.02457691729068756,
          -0.037895284593105316,
          0.11148111522197723,
          -0.02505485899746418,
          0.04003528505563736,
          0.05821932107210159,
          0.01370573416352272,
          0.09547621756792068,
          -0.007305573206394911,
          0.01948585920035839,
          0.05911409109830856,
          0.0019274124642834067,
          0.05458754673600197,
          0.03483927249908447,
          -0.022075651213526726,
          0.04831448197364807,
          0.13583992421627045,
          0.030302075669169426,
          0.005404591094702482,
          0.02633834443986416,
          -0.08833456039428711,
          0.005103671457618475,
          -0.03941993787884712,
          0.0023397537879645824,
          0.012719893828034401,
          -0.10153274983167648,
          0.018119921907782555,
          0.0781579464673996,
          0.07056030631065369,
          0.0028165432158857584,
          0.018129080533981323,
          -0.008014166727662086,
          -0.007708559278398752,
          0.027307990938425064,
          0.013802516274154186,
          -0.042703937739133835
        ],
        [
          0.001550066052004695,
          0.014707673341035843,
          -0.06830968707799911,
          -0.03622220829129219,
          0.09907177835702896,
          -0.1767396330833435,
          -0.08861321955919266,
          0.13131047785282135,
          0.16312752664089203,
          0.1477021425962448,
          0.1593780666589737,
          -0.047409046441316605,
          0.15945740044116974,
          0.04673048108816147,
          0.0224823746830225,
          0.052439961582422256,
          0.011967911384999752,
          -0.02190982736647129,
          -0.03858943656086922,
          -0.13984686136245728,
          -0.04812263697385788,
          -0.12699617445468903,
          -0.036056555807590485,
          -0.14491355419158936,
          -0.13792531192302704,
          0.0029356824234128,
          -0.05545433983206749,
          -0.0376618318259716,
          0.14745131134986877,
          -0.03304724022746086,
          0.00207912502810359,
          -0.07405614852905273,
          0.022786829620599747,
          -0.06347569078207016,
          0.06899607926607132,
          0.05308718606829643,
          0.02992197312414646,
          0.0996650978922844,
          0.08535895496606827,
          -0.14542217552661896,
          -0.042988549917936325,
          0.054115962237119675,
          -0.026588624343276024,
          -0.10406520217657089,
          -0.0036293300800025463,
          0.029501264914870262,
          0.10884890705347061,
          -0.03152567520737648,
          -0.06864719837903976,
          -0.04182147979736328,
          0.06357435882091522,
          0.0266495943069458,
          -0.07717134058475494,
          -0.07282403856515884,
          0.043059416115283966,
          0.07059140503406525,
          0.022981027141213417,
          0.055506519973278046,
          -0.08263129740953445,
          -0.012999781407415867,
          0.057623401284217834,
          0.049822866916656494,
          0.07834786176681519,
          0.014763515442609787,
          -0.030922546982765198,
          -0.039507411420345306,
          0.14392656087875366,
          0.06391684710979462,
          -0.03340677171945572,
          -0.023689737543463707,
          -0.045679960399866104,
          0.016937915235757828,
          -0.0313948430120945,
          0.0522562712430954,
          0.09236008673906326,
          -0.04619303718209267,
          0.0888257697224617,
          -0.005731288809329271,
          -0.08100536465644836,
          0.04201948270201683,
          0.0680331140756607,
          0.09070941060781479,
          -0.06617768853902817,
          0.0376250334084034,
          -0.03400802984833717,
          0.10606524348258972,
          0.003870156826451421,
          -0.07589723914861679,
          0.0422668419778347,
          0.037690170109272,
          -0.014762906357645988,
          0.18250739574432373,
          0.03061879612505436,
          0.1389869898557663,
          -0.00996915902942419,
          0.07722050696611404,
          0.0051236459985375404,
          0.0761464312672615,
          0.0829453244805336,
          0.0658252090215683,
          0.07221902161836624,
          0.06160473823547363,
          -0.05969400703907013,
          0.12416564673185349,
          0.038190919905900955,
          0.02740587294101715,
          0.10835631936788559,
          0.04409784823656082,
          0.07670908421278,
          -0.0734134316444397,
          -0.019416144117712975,
          0.03330584615468979,
          0.09891364723443985,
          -0.07132993638515472,
          -0.05772513151168823,
          0.11395859718322754,
          -0.14283306896686554,
          -0.0033093655947595835,
          -0.09876154363155365,
          0.12592273950576782,
          0.07978168874979019,
          0.03006109595298767,
          -0.05246511846780777,
          -0.05163031443953514,
          -0.10682252794504166,
          -0.023465726524591446,
          0.04967369884252548,
          0.04983288422226906,
          -0.09662792086601257,
          -0.0638083964586258,
          -0.10365483909845352,
          0.017822977155447006,
          0.062327925115823746,
          -0.022208508104085922,
          -0.08748206496238708,
          -0.039007458835840225,
          -0.02151605486869812,
          -0.06546787917613983,
          -0.03241000697016716,
          0.0953991562128067,
          -0.03163610398769379,
          -0.019007720053195953,
          -0.006386086344718933,
          -0.02313091792166233,
          -0.011328235268592834,
          -0.010596961714327335,
          0.01977379433810711,
          0.03807205334305763
        ],
        [
          0.03404861316084862,
          0.0015765737043693662,
          -0.03712162747979164,
          -0.007077793125063181,
          0.0006032602395862341,
          -0.059886232018470764,
          -0.06292326003313065,
          -0.05686213821172714,
          0.025447366759181023,
          -0.07514433562755585,
          -0.0412939116358757,
          0.14508545398712158,
          0.012618490494787693,
          0.01267090905457735,
          0.08795473724603653,
          0.0857340469956398,
          -0.05411434918642044,
          -0.09471771866083145,
          0.0650327280163765,
          0.028248151764273643,
          0.14286872744560242,
          0.007437602616846561,
          -0.02521681599318981,
          0.008471036329865456,
          0.05076955258846283,
          -0.046907201409339905,
          0.026352761313319206,
          0.044741302728652954,
          0.1121111810207367,
          -0.05103371664881706,
          -0.004798908717930317,
          0.047257862985134125,
          0.0022235221695154905,
          -0.07125087827444077,
          0.0952209085226059,
          0.11601543426513672,
          -0.012830554507672787,
          -0.0034078527241945267,
          0.07253208011388779,
          0.12458715587854385,
          0.027537230402231216,
          0.024132126942276955,
          0.1172768771648407,
          0.13123932480812073,
          -0.08059479296207428,
          -0.01567075215280056,
          0.025654133409261703,
          -0.03237726166844368,
          0.027331164106726646,
          0.045620083808898926,
          0.11136376112699509,
          0.11999785900115967,
          0.04569827392697334,
          -0.04622817039489746,
          -0.047539643943309784,
          0.0005882525583729148,
          -0.09391643851995468,
          0.02029206044971943,
          -0.13694995641708374,
          -0.1240096464753151,
          -0.06064528971910477,
          -0.031223172321915627,
          -0.11958494782447815,
          -0.12770003080368042,
          -0.0017974189249798656,
          -0.07081597298383713,
          -0.0037910914979875088,
          0.0008627698407508433,
          -0.07010559737682343,
          -0.017865585163235664,
          0.13354557752609253,
          -0.01371328067034483,
          -0.010586299002170563,
          -0.0652739554643631,
          0.008932594209909439,
          0.11111621558666229,
          0.01406519953161478,
          0.000550786149688065,
          0.06856539100408554,
          -0.020313704386353493,
          0.041501179337501526,
          0.14704589545726776,
          -0.0058656916953623295,
          0.10474301874637604,
          -0.040660738945007324,
          -0.03596881777048111,
          0.0065884361974895,
          -0.010424667038023472,
          0.11878008395433426,
          0.05801459774374962,
          -0.02991967275738716,
          -0.11086532473564148,
          0.08867587149143219,
          -0.07556760311126709,
          0.1843467801809311,
          0.0694604367017746,
          0.09576724469661713,
          0.0553135871887207,
          0.07268138974905014,
          0.05442402511835098,
          0.06032268702983856,
          0.031237786635756493,
          0.04179413244128227,
          -0.10774097591638565,
          -0.0838877484202385,
          0.07151497155427933,
          -0.08359287679195404,
          0.009135084226727486,
          0.021513894200325012,
          0.11868425458669662,
          -0.047240931540727615,
          -0.03393835946917534,
          0.0891752541065216,
          0.023470526561141014,
          -0.09575620293617249,
          0.14304614067077637,
          -0.050171758979558945,
          -0.06138038635253906,
          0.14160574972629547,
          0.09445912390947342,
          0.12795665860176086,
          0.10266143828630447,
          -0.0571637786924839,
          -0.024524275213479996,
          0.027873363345861435,
          0.04484298452734947,
          0.09510090202093124,
          0.08178532123565674,
          0.1236192062497139,
          0.13081052899360657,
          0.1439865529537201,
          0.11814071983098984,
          0.09856148809194565,
          0.07558275759220123,
          0.1163007840514183,
          0.09597599506378174,
          0.08023933321237564,
          0.0873604342341423,
          0.12481682747602463,
          0.0457540787756443,
          -0.11594199389219284,
          -0.002581621753051877,
          -0.020303037017583847,
          -0.040522582828998566,
          -0.019534464925527573,
          0.09496952593326569,
          0.016532087698578835,
          -0.07953506708145142
        ],
        [
          -0.04923960939049721,
          -0.04720999673008919,
          -0.08889272063970566,
          -0.015424966812133789,
          0.011332966387271881,
          0.06455621868371964,
          -0.10160817205905914,
          0.12255270034074783,
          -0.04316128045320511,
          -0.02921675331890583,
          0.008312960155308247,
          0.03235771879553795,
          -0.0398557186126709,
          -0.02569160982966423,
          0.05997258797287941,
          0.1751926988363266,
          0.045921701937913895,
          0.05691850930452347,
          0.07870472222566605,
          0.14573045074939728,
          0.05879480019211769,
          0.058283731341362,
          -0.11108193546533585,
          -0.04358914494514465,
          -0.08228311687707901,
          0.02367032878100872,
          -0.06186774745583534,
          -0.023484202101826668,
          0.04770369827747345,
          -0.09675811231136322,
          -0.1497114896774292,
          -0.02440663054585457,
          -0.025793621316552162,
          0.046040795743465424,
          0.004759906325489283,
          0.003922024741768837,
          0.06638733297586441,
          0.03990531340241432,
          0.013585906475782394,
          0.0031845909543335438,
          -0.06284654885530472,
          -0.0352218858897686,
          0.1474761664867401,
          0.03163229301571846,
          0.04205474629998207,
          0.01840723492205143,
          0.02927122265100479,
          -0.037266019731760025,
          0.013754837214946747,
          -0.214581698179245,
          -0.19812332093715668,
          -0.20307570695877075,
          -0.05943923071026802,
          0.03460254147648811,
          0.03205322101712227,
          -0.0385650210082531,
          0.0034341192804276943,
          0.0019588747527450323,
          0.12750232219696045,
          0.08021601289510727,
          0.022631580010056496,
          0.031752895563840866,
          -0.10059703886508942,
          0.06982938945293427,
          0.045724961906671524,
          -0.025845039635896683,
          0.02765955589711666,
          0.13777852058410645,
          0.00977584719657898,
          -0.05521069094538689,
          -0.03546307608485222,
          -0.013905560597777367,
          -0.012318341992795467,
          0.05793937295675278,
          -0.01923391968011856,
          0.07132938504219055,
          0.040357884019613266,
          0.0807286724448204,
          0.004016804043203592,
          0.0015014342498034239,
          0.11933723837137222,
          0.014281367883086205,
          -0.04049752652645111,
          -0.0923050120472908,
          0.05562443658709526,
          0.09336508065462112,
          -0.06544293463230133,
          -0.018237633630633354,
          -0.015507531352341175,
          0.04997212067246437,
          0.04586284980177879,
          0.017139265313744545,
          -0.08596573770046234,
          -0.05949825793504715,
          -0.058999791741371155,
          0.15131716430187225,
          0.1057346761226654,
          -0.027612902224063873,
          0.03527074307203293,
          -0.004208806436508894,
          -0.05323387682437897,
          0.06825068593025208,
          -0.03565886989235878,
          0.13858206570148468,
          0.018839040771126747,
          -0.007714778184890747,
          0.13825742900371552,
          0.09878338128328323,
          -0.007496743928641081,
          0.01497197337448597,
          0.005126256495714188,
          0.02976590022444725,
          0.027322497218847275,
          -0.08948229998350143,
          0.04456964507699013,
          0.039235878735780716,
          -0.04478851333260536,
          0.01346161775290966,
          0.05982071906328201,
          0.0758594274520874,
          -0.05803805962204933,
          0.014312329702079296,
          0.024331482127308846,
          0.13423380255699158,
          -0.015346198342740536,
          0.11873198300600052,
          0.031823523342609406,
          0.10741541534662247,
          0.11019419878721237,
          0.029023265466094017,
          0.026868769899010658,
          0.05875755473971367,
          0.01714310050010681,
          0.03383546322584152,
          -0.03448515385389328,
          0.0031534370500594378,
          0.045014638453722,
          0.11369400471448898,
          0.11991392821073532,
          0.111673504114151,
          0.014839069917798042,
          -0.011486442759633064,
          0.07949336618185043,
          -0.07193741947412491,
          0.04284147918224335,
          -0.04142945259809494,
          -0.07156205177307129,
          0.027232548221945763
        ],
        [
          -0.005403285846114159,
          0.05743260309100151,
          -0.07695765048265457,
          -0.05287359282374382,
          0.12075311690568924,
          0.01907399855554104,
          0.0008232093532569706,
          0.12974736094474792,
          -0.007852303795516491,
          0.0017700092867016792,
          0.02655738964676857,
          0.06722941249608994,
          -0.0024537499994039536,
          -0.03206714987754822,
          0.07336349040269852,
          -0.042663391679525375,
          0.1051061674952507,
          0.18528035283088684,
          0.027670416980981827,
          0.0903630256652832,
          0.09559118747711182,
          -0.06227190047502518,
          0.08401300013065338,
          0.018470367416739464,
          0.014077841304242611,
          0.17209091782569885,
          0.08459903299808502,
          0.0950179398059845,
          0.12531836330890656,
          -0.1255567967891693,
          -0.11821699887514114,
          0.03701901435852051,
          -0.1266154646873474,
          0.003969608340412378,
          0.0826478824019432,
          0.08305943757295609,
          -0.019734151661396027,
          0.07507827132940292,
          0.06023528799414635,
          0.033108726143836975,
          0.12793414294719696,
          0.03431805968284607,
          0.07888910919427872,
          0.11871645599603653,
          0.12431776523590088,
          0.06056065857410431,
          0.08039186149835587,
          0.07949462532997131,
          -0.025651417672634125,
          -0.042178522795438766,
          0.03981596603989601,
          -0.051955778151750565,
          0.027311570942401886,
          0.20105834305286407,
          0.14411064982414246,
          0.1560724377632141,
          0.040792226791381836,
          0.01555605698376894,
          -0.02807704731822014,
          -0.02907748520374298,
          0.08273783326148987,
          0.04449225962162018,
          0.07614586502313614,
          0.0879737064242363,
          0.08428185433149338,
          0.04862777888774872,
          0.03938788175582886,
          -0.04919128865003586,
          -0.048981476575136185,
          0.07790829241275787,
          0.09228403866291046,
          -0.01419794000685215,
          0.01233781035989523,
          0.034298475831747055,
          0.06849905848503113,
          -0.04665384814143181,
          0.08390191942453384,
          0.10790343582630157,
          -0.05059939995408058,
          0.0742146298289299,
          0.15868504345417023,
          -0.061558522284030914,
          -0.0874924510717392,
          -0.10643371194601059,
          -0.02005312591791153,
          0.027074040845036507,
          0.1413561999797821,
          0.15170489251613617,
          0.15129072964191437,
          -0.0008509609033353627,
          0.07837163656949997,
          -0.10468224436044693,
          -0.02119537815451622,
          0.04097567871212959,
          -0.016920318827033043,
          -0.08837486058473587,
          -0.0891915038228035,
          0.013394925743341446,
          -0.037197742611169815,
          -0.0409410297870636,
          0.05952870100736618,
          -0.03036176972091198,
          0.01706969179213047,
          -0.009031266905367374,
          0.05003364011645317,
          -0.0489482581615448,
          0.13790862262248993,
          0.19792470335960388,
          -0.04962601140141487,
          0.1513798087835312,
          -0.0678737685084343,
          0.0633234828710556,
          0.014675945974886417,
          -0.04941147565841675,
          -0.004429336171597242,
          0.008655996061861515,
          0.01871247962117195,
          -0.1275382786989212,
          0.053495634347200394,
          0.13163575530052185,
          -0.029766526073217392,
          0.13527880609035492,
          0.0691598430275917,
          0.16343067586421967,
          0.14980673789978027,
          0.05035429820418358,
          0.04645298793911934,
          0.12591423094272614,
          0.03418172523379326,
          0.02001839503645897,
          -0.0935850664973259,
          0.09526454657316208,
          -0.09714938700199127,
          0.018428998067975044,
          -0.06335251778364182,
          -0.028153935447335243,
          -0.039374079555273056,
          -0.007202175911515951,
          0.033881258219480515,
          0.11374645680189133,
          0.07307795435190201,
          0.009671887382864952,
          0.037456825375556946,
          0.0016170397866517305,
          -0.10419259965419769,
          0.03832797333598137,
          0.003639065660536289,
          -0.033193282783031464
        ],
        [
          0.01970895193517208,
          -0.04696100205183029,
          0.12218435108661652,
          0.021969014778733253,
          0.000656701740808785,
          0.059684112668037415,
          -0.03169585391879082,
          0.05198729783296585,
          -0.010155124589800835,
          -0.0124823534861207,
          -0.03546101972460747,
          0.12707141041755676,
          -0.03655911982059479,
          0.018391676247119904,
          -0.10797002166509628,
          0.006423311773687601,
          0.0295623317360878,
          0.015022611245512962,
          0.09288453310728073,
          0.00021198336617089808,
          -0.05074455589056015,
          0.06695564836263657,
          0.004300567787140608,
          -0.05386042594909668,
          0.037692610174417496,
          -0.033322978764772415,
          0.08159706741571426,
          -0.026719586923718452,
          0.021254880353808403,
          0.07314888387918472,
          0.0477011501789093,
          -0.022498343139886856,
          0.11979884654283524,
          0.04796670377254486,
          0.03234022110700607,
          0.13725115358829498,
          0.018594447523355484,
          -0.012069426476955414,
          0.009735962375998497,
          -0.03622600436210632,
          -0.07323608547449112,
          0.08933897316455841,
          0.018804864957928658,
          -0.12976911664009094,
          0.08330385386943817,
          0.0865745022892952,
          0.019976874813437462,
          0.00225526443682611,
          0.0834597572684288,
          -0.025226199999451637,
          -0.05152375251054764,
          0.0457143597304821,
          0.01881543919444084,
          -0.04502371698617935,
          0.0480649508535862,
          -0.0005671363323926926,
          0.0015892927767708898,
          -0.010611987672746181,
          0.024335140362381935,
          -0.001014455920085311,
          -0.06813913583755493,
          -0.060395509004592896,
          -0.1290789097547531,
          0.016734421253204346,
          -0.009996085427701473,
          0.1539892554283142,
          -0.06558991968631744,
          -0.05660108104348183,
          0.056657545268535614,
          -0.12972450256347656,
          -0.1122509315609932,
          0.1017434224486351,
          0.09202888607978821,
          -0.09397516399621964,
          0.01692230813205242,
          0.029694756492972374,
          -0.13400773704051971,
          -0.09040123224258423,
          0.09545937180519104,
          -0.026875197887420654,
          -0.11267569661140442,
          0.09336535632610321,
          -0.00895685888826847,
          0.0987270176410675,
          0.03527151048183441,
          0.016507359221577644,
          0.14862282574176788,
          0.07566994428634644,
          0.002444841433316469,
          0.006550886668264866,
          0.07782812416553497,
          0.19667461514472961,
          0.15613147616386414,
          0.15066853165626526,
          0.08096206933259964,
          -0.01636437512934208,
          -0.0351518876850605,
          0.011187463067471981,
          -0.019187742844223976,
          0.006849121768027544,
          -0.054753974080085754,
          0.03710278496146202,
          0.0937379002571106,
          0.07777650654315948,
          0.08175372332334518,
          0.06496546417474747,
          -0.00012178146425867453,
          -0.0058916793204844,
          0.09519774466753006,
          0.13843278586864471,
          0.036208342760801315,
          0.01426205225288868,
          0.01371360570192337,
          -0.014524532482028008,
          -0.05059625208377838,
          0.08848952502012253,
          0.03823269531130791,
          -0.052927903831005096,
          -0.028846636414527893,
          0.03037998639047146,
          0.05418873205780983,
          -0.037861473858356476,
          0.026474183425307274,
          0.04332563653588295,
          0.14998085796833038,
          0.056250400841236115,
          -0.06196282058954239,
          -0.0029633338563144207,
          -0.08999735116958618,
          -0.026391813531517982,
          0.09948043525218964,
          -0.024660464376211166,
          -0.11286333203315735,
          -0.11361636966466904,
          -0.02084600366652012,
          -0.04551945999264717,
          -0.08419574797153473,
          -0.017229577526450157,
          -0.1174464225769043,
          0.05065789073705673,
          -0.05362880975008011,
          0.027989745140075684,
          0.020518720149993896,
          0.037335071712732315,
          0.03241673484444618,
          0.08248259872198105,
          0.08484886586666107,
          -0.08851192891597748
        ],
        [
          -0.013186022639274597,
          0.026890134438872337,
          0.09362458437681198,
          -0.036422017961740494,
          0.08162591606378555,
          0.02911141887307167,
          -0.14264413714408875,
          0.0034199992660433054,
          -0.04432186856865883,
          -0.06476479768753052,
          0.01680055446922779,
          -0.01990603283047676,
          -0.10634005814790726,
          0.04329472780227661,
          -0.04235580563545227,
          0.05227030813694,
          -0.0029990412294864655,
          0.04998568445444107,
          -0.04024001955986023,
          -0.05704996734857559,
          0.11514043807983398,
          -0.1087893545627594,
          -0.11302436888217926,
          -0.0806046724319458,
          -0.1039661318063736,
          -0.08851385116577148,
          -0.040510229766368866,
          -0.09411828964948654,
          0.004941584076732397,
          -0.12577272951602936,
          -0.10725127160549164,
          -0.030425433069467545,
          -0.03297095745801926,
          -0.043789200484752655,
          0.0034182798117399216,
          -0.08421121537685394,
          0.10738638043403625,
          0.07192152738571167,
          -0.030354147776961327,
          0.14974574744701385,
          0.10448627918958664,
          0.02258651703596115,
          0.00889106560498476,
          0.06184430047869682,
          0.05544392019510269,
          0.025167375802993774,
          0.007878459058701992,
          0.0872042179107666,
          0.024489128962159157,
          0.0580475851893425,
          -0.027948133647441864,
          0.020637670531868935,
          0.10504201799631119,
          0.17697930335998535,
          -0.14831921458244324,
          -0.05873528867959976,
          -0.22201389074325562,
          0.1219576746225357,
          -0.17861518263816833,
          0.0012762040132656693,
          -0.009480991400778294,
          0.08650877326726913,
          0.04392541944980621,
          0.0077455355785787106,
          0.05727243050932884,
          0.14891020953655243,
          -0.07882209867238998,
          -0.20538033545017242,
          0.0010367557406425476,
          -0.08075504750013351,
          0.11424281448125839,
          -0.07758929580450058,
          -0.0344575010240078,
          0.09601493179798126,
          0.06771562993526459,
          0.03766147792339325,
          0.04220588877797127,
          -0.011116713285446167,
          -0.015648208558559418,
          0.12776553630828857,
          0.012941267341375351,
          0.015911657363176346,
          0.11646970361471176,
          0.12480450421571732,
          0.03014802746474743,
          -0.15247750282287598,
          0.1658431589603424,
          0.15867851674556732,
          0.17788203060626984,
          0.07795163244009018,
          0.045940984040498734,
          -0.1223982721567154,
          -0.006054176017642021,
          -0.08202515542507172,
          -0.059620387852191925,
          -0.026962963864207268,
          0.02162461169064045,
          0.09493471682071686,
          0.16902950406074524,
          0.028357012197375298,
          0.047356970608234406,
          0.16927213966846466,
          0.09526986628770828,
          -0.14552973210811615,
          -0.08363432437181473,
          0.08148130029439926,
          0.04912529140710831,
          0.15474893152713776,
          0.0011618923163041472,
          -0.022154010832309723,
          -0.04021045193076134,
          -0.00860784761607647,
          0.034815095365047455,
          0.02223927713930607,
          -0.09126223623752594,
          0.16181111335754395,
          -0.028223592787981033,
          -0.1910524070262909,
          0.04752291738986969,
          0.19938664138317108,
          0.08664201200008392,
          0.11020821332931519,
          -0.014955003745853901,
          0.1268547773361206,
          0.032534658908843994,
          0.10424859821796417,
          -0.031075796112418175,
          -0.07504704594612122,
          0.012559506110846996,
          -0.12364194542169571,
          -0.07620202004909515,
          0.05403625965118408,
          -0.01575767621397972,
          0.05700133368372917,
          0.018277185037732124,
          -0.04521443694829941,
          -0.0479171983897686,
          -0.050946008414030075,
          0.0516381673514843,
          0.06357042491436005,
          -0.11338616162538528,
          -0.05424480512738228,
          -0.04137573391199112,
          -0.16111283004283905,
          -0.13354168832302094,
          0.07669094949960709,
          -0.07097693532705307,
          -0.05583209544420242
        ],
        [
          0.01897454634308815,
          0.04278478026390076,
          0.002916124416515231,
          -0.11868703365325928,
          0.08250319212675095,
          0.030817074701189995,
          -0.0018031059298664331,
          0.009320571087300777,
          0.11509845405817032,
          0.05859428271651268,
          0.04640241339802742,
          0.0017641088925302029,
          0.03412232920527458,
          -0.05518587306141853,
          0.018486646935343742,
          -0.08247151970863342,
          0.05912346392869949,
          -0.05108055844902992,
          0.05367591232061386,
          -0.04851921275258064,
          0.10772385448217392,
          0.03498575836420059,
          0.12555959820747375,
          0.03564595803618431,
          0.09416551887989044,
          0.007457863073796034,
          0.10872938483953476,
          0.016807999461889267,
          0.08806680887937546,
          -0.05865781381726265,
          -0.054176874458789825,
          0.021792598068714142,
          -0.026212243363261223,
          0.06384400278329849,
          0.009349780157208443,
          0.1303294599056244,
          -0.033763352781534195,
          -0.02076142653822899,
          0.08448123186826706,
          0.01449259091168642,
          0.051535628736019135,
          -0.07839379459619522,
          -0.004967822693288326,
          0.07466653734445572,
          0.03620611131191254,
          0.025934360921382904,
          0.014950940385460854,
          -0.05023350194096565,
          0.026246964931488037,
          0.044285744428634644,
          0.13116633892059326,
          0.08373069763183594,
          0.014776244759559631,
          0.1517857164144516,
          0.11057188361883163,
          0.002367697423323989,
          0.07604584097862244,
          0.027983559295535088,
          -0.019761983305215836,
          0.13496527075767517,
          0.17096641659736633,
          0.06812860071659088,
          0.11754823476076126,
          0.08938072621822357,
          0.07989708334207535,
          0.06624193489551544,
          0.008880030363798141,
          0.03884978964924812,
          -0.011022813618183136,
          0.053860798478126526,
          0.10925418138504028,
          -0.04455270990729332,
          0.03872724249958992,
          -0.015579714439809322,
          0.016603317111730576,
          0.12297581881284714,
          -0.009335351176559925,
          -0.04447877034544945,
          0.036733727902173996,
          -0.11368428170681,
          -0.053593073040246964,
          -0.017102759331464767,
          0.1760835200548172,
          0.07947800308465958,
          0.05434848368167877,
          -0.0011341398349031806,
          0.07513728737831116,
          -0.07890073210000992,
          -0.01567319966852665,
          -0.03519872575998306,
          -0.012719341553747654,
          -0.08303196728229523,
          0.11095934361219406,
          0.0698198676109314,
          0.21810095012187958,
          -0.010259898379445076,
          0.07424532622098923,
          0.07778878509998322,
          0.15039142966270447,
          0.145957812666893,
          0.10588252544403076,
          0.10162197798490524,
          0.04305809736251831,
          -0.03114866092801094,
          -0.016837529838085175,
          0.05640662461519241,
          -0.1410759538412094,
          -0.09215453267097473,
          0.0233909972012043,
          0.07984033972024918,
          -0.062497034668922424,
          0.12556949257850647,
          -0.007949248887598515,
          -0.0599178746342659,
          -0.0508638434112072,
          -0.01215983647853136,
          0.15657682716846466,
          -0.05237068980932236,
          -0.024339113384485245,
          -0.0476168617606163,
          0.1468893140554428,
          0.013384043239057064,
          0.02182343415915966,
          0.03628968819975853,
          0.1620694100856781,
          0.10404965281486511,
          0.14425399899482727,
          0.1680634319782257,
          0.21830181777477264,
          0.0863061472773552,
          0.10463134199380875,
          -0.08073252439498901,
          0.010083485394716263,
          0.04262015223503113,
          -0.04343027621507645,
          -0.009783532470464706,
          0.009194723330438137,
          0.03347219154238701,
          -0.09075788408517838,
          0.11324996501207352,
          -0.03222774341702461,
          -0.02714643068611622,
          0.04462664574384689,
          -0.08886522799730301,
          -0.15159004926681519,
          -0.021278411149978638,
          0.02202034555375576,
          0.002983169397339225
        ],
        [
          0.13132329285144806,
          0.06026226282119751,
          -0.043326910585165024,
          0.0230118278414011,
          0.00611279858276248,
          0.05900651961565018,
          0.053402792662382126,
          -0.09463898837566376,
          0.12865236401557922,
          -0.04178018495440483,
          0.017752548679709435,
          -0.07076650857925415,
          -0.0563250407576561,
          0.02777649462223053,
          0.028650280088186264,
          -0.01643296703696251,
          -0.1114737018942833,
          0.065554179251194,
          0.09192439913749695,
          0.058119840919971466,
          -0.03963334858417511,
          -0.04877341166138649,
          -0.015995608642697334,
          0.0015353361377492547,
          -0.0037568199913948774,
          0.009305804967880249,
          0.04277535155415535,
          0.003747530747205019,
          0.0985812172293663,
          -0.07653012126684189,
          -0.0057925209403038025,
          0.005100719630718231,
          -0.03146640211343765,
          0.02940368466079235,
          0.09866216778755188,
          -0.011877473443746567,
          0.004884995054453611,
          0.11433883756399155,
          0.00315584777854383,
          0.03969573602080345,
          0.03490959107875824,
          0.06255276501178741,
          -0.061370331794023514,
          0.018519004806876183,
          -0.05190279334783554,
          -0.03809375688433647,
          0.06293006986379623,
          0.08258470147848129,
          0.045263610780239105,
          -0.0038348154630512,
          -0.1293105185031891,
          -0.06178715080022812,
          -0.0872144103050232,
          -0.0861591100692749,
          -0.04316698759794235,
          -0.19812458753585815,
          -0.13725699484348297,
          -0.09328707307577133,
          -0.03226500749588013,
          -0.05335649475455284,
          -0.05319084972143173,
          -0.023687511682510376,
          -0.06629467010498047,
          0.006598541047424078,
          0.0012475844705477357,
          0.05331988260149956,
          0.09301747381687164,
          0.0397721603512764,
          0.016102537512779236,
          0.011654379777610302,
          0.09604208916425705,
          0.03941267728805542,
          0.08895380049943924,
          -0.01920725591480732,
          0.09664873033761978,
          -8.387608977500349e-05,
          0.030184390023350716,
          0.029971955344080925,
          0.11366640031337738,
          -0.1022057756781578,
          -0.02923949435353279,
          0.004584282636642456,
          0.11289262026548386,
          -0.0036247149109840393,
          0.1137085109949112,
          -0.016591046005487442,
          -0.031124185770750046,
          -0.17105640470981598,
          -0.028690842911601067,
          0.061306096613407135,
          0.06674468517303467,
          0.008824994787573814,
          -0.09529334306716919,
          -0.08036048710346222,
          0.052661169320344925,
          0.10069706290960312,
          -0.02709910273551941,
          0.031186996027827263,
          0.0035210244823247194,
          -0.041471462696790695,
          0.04559774324297905,
          0.051195014268159866,
          0.04220961406826973,
          -0.09357097744941711,
          -0.11342871189117432,
          -0.07285423576831818,
          -0.006810054648667574,
          -0.026513665914535522,
          -0.018931882455945015,
          0.018377624452114105,
          -0.02029118500649929,
          -0.0036669981200248003,
          0.12488440424203873,
          0.004407869186252356,
          -0.08048871159553528,
          0.0903538167476654,
          0.06774045526981354,
          -0.007253134157508612,
          -0.11846265941858292,
          -0.04900059476494789,
          -0.002860206412151456,
          -0.005960718262940645,
          -0.032613348215818405,
          0.06012570858001709,
          -0.009205925278365612,
          0.05765443295240402,
          -0.03868428245186806,
          -0.04374165087938309,
          0.12975649535655975,
          0.10181368887424469,
          0.12336024641990662,
          -0.05360614135861397,
          -0.0010666601592674851,
          -0.04364941641688347,
          -0.05279304087162018,
          0.0063821678049862385,
          -0.051440056413412094,
          -0.07233428210020065,
          -0.09446319192647934,
          -0.012161776423454285,
          -4.978512515663169e-05,
          -0.06251171231269836,
          -0.0036964714527130127,
          -0.06870048493146896,
          0.022796502336859703,
          0.031129272654652596,
          -0.0036619948223233223,
          0.017076125368475914
        ],
        [
          -0.033317532390356064,
          -0.026899300515651703,
          -0.06813770532608032,
          -0.06536826491355896,
          -0.0641491711139679,
          -0.07175290584564209,
          -0.07854118943214417,
          0.016110414639115334,
          0.032223641872406006,
          0.13131432235240936,
          0.030568229034543037,
          0.010156417265534401,
          0.05392909422516823,
          0.015586528927087784,
          0.0008641278836876154,
          -0.03311701491475105,
          -0.037297166883945465,
          0.05380549654364586,
          -0.0027102364692837,
          0.03997458890080452,
          0.0074745346792042255,
          0.005823930725455284,
          0.07408132404088974,
          0.10859290510416031,
          -0.04131066054105759,
          0.08374108374118805,
          0.05920208990573883,
          0.021001307293772697,
          -0.03030920960009098,
          0.08447999507188797,
          0.09719706326723099,
          -0.01753358542919159,
          0.06796977669000626,
          -0.009898640215396881,
          0.0586032010614872,
          0.05940123647451401,
          -0.10350159555673599,
          0.06599181145429611,
          0.03262641653418541,
          -0.044183749705553055,
          0.05235154181718826,
          -0.08306659013032913,
          -0.08173596858978271,
          0.07578803598880768,
          -0.018635518848896027,
          0.01123067457228899,
          -0.03549659252166748,
          0.07294438779354095,
          0.008132724091410637,
          0.05096260458230972,
          0.00025852370890788734,
          -0.03400645777583122,
          -0.02835674025118351,
          -0.018748773261904716,
          -0.09076273441314697,
          -0.025307051837444305,
          0.00864646676927805,
          -0.012776466086506844,
          -0.03672278672456741,
          0.0644301250576973,
          0.036523282527923584,
          0.017423871904611588,
          -0.009398710913956165,
          -0.09283643215894699,
          -0.08714063465595245,
          0.026588259264826775,
          0.1237572580575943,
          0.08651251345872879,
          -0.01879037171602249,
          0.012192189693450928,
          0.05281222239136696,
          -0.011686589568853378,
          0.02010493539273739,
          -0.11679212003946304,
          -0.006575886160135269,
          0.07224290817975998,
          0.11505474150180817,
          0.08932412415742874,
          -0.048314761370420456,
          0.06387245655059814,
          0.05277015268802643,
          0.11093609780073166,
          -0.05441127344965935,
          0.04311684891581535,
          -0.00983046181499958,
          -0.0024743136018514633,
          -0.029814526438713074,
          -0.04314052686095238,
          0.0008361712680198252,
          0.0674055814743042,
          -0.10201185196638107,
          -0.03705812990665436,
          0.04053449258208275,
          -0.047211676836013794,
          -0.06955936551094055,
          0.050150319933891296,
          -0.04368874430656433,
          0.0011254381388425827,
          0.010405984707176685,
          0.04226844757795334,
          0.03675660118460655,
          -0.062266718596220016,
          -0.00033053779043257236,
          0.046407196670770645,
          0.008350455202162266,
          0.018313273787498474,
          0.09232493489980698,
          0.011857165023684502,
          -0.003988699987530708,
          0.010436979122459888,
          0.0032540184911340475,
          -0.03875836357474327,
          0.06900163739919662,
          -0.0754772201180458,
          0.031405240297317505,
          0.0365447960793972,
          -0.04565943032503128,
          0.017554042860865593,
          -0.03761176019906998,
          0.05878197029232979,
          0.05704323574900627,
          -0.01047433540225029,
          -0.036930959671735764,
          0.007981979288160801,
          -0.05821611359715462,
          -0.04591315984725952,
          0.016614722087979317,
          0.06214892864227295,
          0.043694186955690384,
          0.08693989366292953,
          0.07393979281187057,
          -0.002745363162830472,
          0.16066937148571014,
          0.02765403315424919,
          0.044273871928453445,
          0.09003607928752899,
          0.09416266530752182,
          0.04396304488182068,
          0.11123345792293549,
          -0.050086356699466705,
          0.04513223469257355,
          0.045225050300359726,
          0.07498092204332352,
          0.02813887596130371,
          0.009435218758881092,
          0.026725253090262413,
          -0.012099150568246841,
          -0.07482445240020752
        ],
        [
          0.020996317267417908,
          0.05105617269873619,
          0.04618185758590698,
          0.008122291415929794,
          -0.019203489646315575,
          0.029389075934886932,
          0.07412320375442505,
          -0.03412684053182602,
          -0.12819808721542358,
          0.007221474312245846,
          -0.03390268236398697,
          0.0038477021735161543,
          0.10558708012104034,
          0.07677269726991653,
          0.1114710345864296,
          0.11204012483358383,
          0.13486653566360474,
          -0.01121280062943697,
          0.11702936887741089,
          0.10981249809265137,
          0.012315190397202969,
          -0.0061411745846271515,
          -0.027884239330887794,
          0.04678214341402054,
          -0.0071001178584992886,
          -0.010776972398161888,
          -0.0756027027964592,
          -0.07374203950166702,
          -0.03013104945421219,
          0.015042933635413647,
          0.023790188133716583,
          -0.06329493224620819,
          0.029755502939224243,
          0.08545693755149841,
          0.04296531155705452,
          -0.005093070678412914,
          0.1700972020626068,
          0.09707404673099518,
          0.052274372428655624,
          0.047309547662734985,
          -0.005434323102235794,
          -0.004595580976456404,
          0.06662847846746445,
          0.03270323947072029,
          0.09708240628242493,
          -0.05574917793273926,
          0.10644453763961792,
          -0.07732175290584564,
          0.022015411406755447,
          -0.08067638427019119,
          0.06341874599456787,
          0.09421622008085251,
          0.04788079857826233,
          -0.07362649589776993,
          -0.126676544547081,
          0.09390448778867722,
          0.073015496134758,
          -0.032170698046684265,
          0.006583630573004484,
          0.04365648329257965,
          0.05992332100868225,
          0.01165440771728754,
          0.06999346613883972,
          0.10360151529312134,
          0.02290046028792858,
          0.038171347230672836,
          0.0652630478143692,
          -0.0981564000248909,
          -0.06108579784631729,
          0.004579341039061546,
          0.03223143890500069,
          0.017177941277623177,
          -0.10428868234157562,
          0.06125770881772041,
          0.046282123774290085,
          0.013002898544073105,
          0.0574641078710556,
          -0.05068254843354225,
          0.11361090838909149,
          0.0008163148304447532,
          0.005467286333441734,
          0.12206631153821945,
          0.062016017735004425,
          0.09796376526355743,
          0.004644159227609634,
          0.03397418558597565,
          -0.13837897777557373,
          -0.09456858038902283,
          -0.11740350723266602,
          0.04005516692996025,
          -0.050765231251716614,
          0.04938655346632004,
          0.07742667943239212,
          -0.051896482706069946,
          0.04320310056209564,
          0.029329556971788406,
          0.02287430688738823,
          0.07168976217508316,
          0.10591735690832138,
          0.0740504115819931,
          0.05491200461983681,
          0.05746251344680786,
          0.011753430590033531,
          0.030339356511831284,
          0.0008464131387881935,
          -0.04108263552188873,
          -0.08840352296829224,
          -0.013785119168460369,
          0.04335160553455353,
          -0.026780350133776665,
          0.07043055444955826,
          -0.01496744342148304,
          0.07917049527168274,
          0.0986185148358345,
          -0.015429669991135597,
          -0.03094273805618286,
          -0.059444818645715714,
          0.055970098823308945,
          0.05295707657933235,
          -0.030351506546139717,
          -0.017825478687882423,
          -0.08382625132799149,
          -0.045723699033260345,
          -0.09381404519081116,
          -0.18488571047782898,
          -0.12586534023284912,
          0.15535873174667358,
          -0.09241248667240143,
          -0.11987706273794174,
          -0.06843148171901703,
          -0.04437979310750961,
          -0.06607703864574432,
          0.04674827307462692,
          0.09226749837398529,
          0.09942249953746796,
          0.17471911013126373,
          0.087941974401474,
          0.09075786918401718,
          0.12001988291740417,
          0.06374423950910568,
          -0.02262134477496147,
          -0.06372684985399246,
          0.039182886481285095,
          0.08663006126880646,
          0.020290348678827286,
          0.08307041972875595,
          0.01550096832215786,
          0.06941182166337967
        ],
        [
          0.06649212539196014,
          0.03890324383974075,
          0.09883417934179306,
          -0.04257914796471596,
          0.11688125878572464,
          -0.10778878629207611,
          -0.01609930582344532,
          -0.02327275462448597,
          0.096832774579525,
          0.0034130422864109278,
          0.019107474014163017,
          0.04296250268816948,
          0.15315961837768555,
          -0.021248705685138702,
          -0.05647355690598488,
          0.00522246491163969,
          -0.014594627544283867,
          -0.05789302662014961,
          -0.16935357451438904,
          -0.14313268661499023,
          0.02742631360888481,
          -0.10531241446733475,
          -0.06392814964056015,
          -0.07516580075025558,
          -0.050680529326200485,
          -0.11892323195934296,
          0.009180092252790928,
          -0.1063571572303772,
          0.08512533456087112,
          -0.05094492807984352,
          -0.016026033088564873,
          -0.06289892643690109,
          -0.07815936207771301,
          -0.00909068901091814,
          -0.03735886514186859,
          0.028177035972476006,
          0.03877032548189163,
          0.08420395851135254,
          0.08656451106071472,
          -0.054507046937942505,
          0.0037608258426189423,
          0.1281336098909378,
          -0.011074567213654518,
          -0.03091457299888134,
          0.05785241723060608,
          0.11715265363454819,
          0.025493917986750603,
          0.034552015364170074,
          0.08867347985506058,
          0.010348350740969181,
          0.01965215429663658,
          0.13673163950443268,
          0.06761378794908524,
          0.1221715658903122,
          0.03564257174730301,
          0.02292395941913128,
          -0.015499993227422237,
          0.01422183495014906,
          -0.020147930830717087,
          -0.009972259402275085,
          -0.024243339896202087,
          -0.022840183228254318,
          -0.04225390404462814,
          -0.006099026184529066,
          -0.050142716616392136,
          0.10846521705389023,
          -0.0970475971698761,
          -0.11852367967367172,
          0.005393184721469879,
          -0.02966010943055153,
          -0.034589171409606934,
          0.004536137916147709,
          0.056312195956707,
          0.008128918707370758,
          0.0018902115989476442,
          -0.018674934282898903,
          0.07962223887443542,
          0.05353175103664398,
          0.03400466963648796,
          0.02387174218893051,
          0.05978420376777649,
          0.02926447056233883,
          -0.03111857734620571,
          0.05422581732273102,
          -0.0011972645297646523,
          0.1338295191526413,
          0.031378373503685,
          0.054031431674957275,
          -0.016063829883933067,
          0.0452539324760437,
          0.0331067256629467,
          -0.011441763490438461,
          0.028980577364563942,
          0.03763296455144882,
          0.12934993207454681,
          0.022499388083815575,
          0.11108716577291489,
          -0.0004115543852094561,
          0.012518733739852905,
          0.02918826974928379,
          0.06378176063299179,
          0.06832823902368546,
          -0.03342931345105171,
          0.011546730995178223,
          0.05457707494497299,
          0.05945936590433121,
          -0.0058214133605360985,
          0.049151767045259476,
          -0.0492793545126915,
          -0.06062019243836403,
          0.0017875628545880318,
          0.09349533915519714,
          0.0655641108751297,
          -0.036304961889982224,
          0.06556094437837601,
          -0.005985380616039038,
          0.08700930327177048,
          0.03606318309903145,
          0.024617716670036316,
          -0.002147942315787077,
          -0.042578477412462234,
          0.033622488379478455,
          0.08023332804441452,
          0.015268813818693161,
          0.06206829473376274,
          -0.04769604280591011,
          0.0460808202624321,
          -0.00266656675375998,
          -0.10227001458406448,
          -0.07632514834403992,
          -0.09050826728343964,
          0.11573867499828339,
          0.025220580399036407,
          0.10305160284042358,
          0.07123276591300964,
          -0.01643204689025879,
          0.0562729686498642,
          0.024089602753520012,
          0.010599481873214245,
          -0.0239130649715662,
          0.042070865631103516,
          0.0034773664083331823,
          0.05630897730588913,
          0.06238771975040436,
          -0.03557056933641434,
          0.0379805751144886,
          -0.09409596025943756,
          -0.015425371006131172
        ],
        [
          0.03685405105352402,
          -0.015013301745057106,
          0.02311563491821289,
          -0.03282449394464493,
          -0.07417910546064377,
          0.06976562738418579,
          0.16863487660884857,
          0.015282315202057362,
          -0.019207356497645378,
          0.0013634127099066973,
          -0.09566224366426468,
          0.08306927978992462,
          0.023404736071825027,
          0.07309232652187347,
          -0.03572062775492668,
          -0.013348200358450413,
          0.004761232994496822,
          -0.013810597360134125,
          -0.003681105561554432,
          0.10123118758201599,
          0.055122945457696915,
          0.05618232116103172,
          0.11060354858636856,
          0.02508249320089817,
          0.1333945393562317,
          0.11560823023319244,
          0.09233573079109192,
          0.0441819466650486,
          -0.017821619287133217,
          0.1411333978176117,
          0.029637977480888367,
          -0.016051821410655975,
          0.09219252318143845,
          0.0749911516904831,
          0.11283023655414581,
          -0.017597103491425514,
          0.09520019590854645,
          0.06556612253189087,
          0.03655741363763809,
          -0.02471158467233181,
          -0.05699698254466057,
          -0.010471866466104984,
          -0.03174974396824837,
          0.13299748301506042,
          -0.04212307929992676,
          -0.02870415523648262,
          0.03712174668908119,
          -0.057826146483421326,
          0.02802269160747528,
          0.0937570333480835,
          0.10242511332035065,
          0.08772943168878555,
          -0.03403397649526596,
          -0.13789741694927216,
          -0.10822579264640808,
          -0.0001751457602949813,
          -0.08214526623487473,
          -0.003465554676949978,
          0.05535370111465454,
          0.12826380133628845,
          0.0239191222935915,
          0.0013772831298410892,
          0.07437198609113693,
          0.012111946009099483,
          0.02878715470433235,
          -0.04260586202144623,
          0.19982458651065826,
          0.007432996295392513,
          -0.06785871088504791,
          0.03646359592676163,
          -0.03539976477622986,
          0.019389532506465912,
          -0.00024855590891093016,
          0.036784686148166656,
          0.06346318870782852,
          0.12305502593517303,
          0.0019423472695052624,
          -0.0786740854382515,
          0.037217505276203156,
          -0.1358785331249237,
          -0.009124916046857834,
          0.12160925567150116,
          -0.023263635113835335,
          0.13825224339962006,
          0.03141815587878227,
          -0.0007666409946978092,
          0.017425578087568283,
          -0.016551611945033073,
          0.07805392146110535,
          0.002522246679291129,
          -0.09156959503889084,
          0.020031630992889404,
          -0.1493135690689087,
          -0.16303439438343048,
          0.11113376915454865,
          -0.12378915399312973,
          -0.10985225439071655,
          -0.047202710062265396,
          -0.09788736701011658,
          -0.07895397394895554,
          -0.01015834603458643,
          -0.03523603826761246,
          0.07398323714733124,
          0.06201375275850296,
          -0.040017060935497284,
          -0.036153897643089294,
          0.0501415990293026,
          -0.04179944470524788,
          0.06318092346191406,
          -0.02870221436023712,
          0.035185568034648895,
          0.029530396685004234,
          0.07156778872013092,
          -0.05776608735322952,
          0.02048567868769169,
          0.15626104176044464,
          -0.12595674395561218,
          -0.11406600475311279,
          -0.062315814197063446,
          0.07928676158189774,
          0.07210179418325424,
          0.07016020268201828,
          -0.039433080703020096,
          -0.02919994294643402,
          0.0003612643340602517,
          -0.033779326826334,
          0.017249854281544685,
          0.13064610958099365,
          -0.004067381378263235,
          0.17862625420093536,
          0.12316575646400452,
          0.0930602177977562,
          0.03255346417427063,
          0.04081029072403908,
          0.12561215460300446,
          0.12670104205608368,
          0.02288544923067093,
          0.11001027375459671,
          0.09975796937942505,
          0.15199002623558044,
          -0.05713608115911484,
          -0.027268415316939354,
          -0.04093608260154724,
          -0.05594061687588692,
          -0.10125283896923065,
          0.13121210038661957,
          0.0821666494011879,
          0.03697330504655838
        ],
        [
          -0.03190738707780838,
          0.04522379860281944,
          -0.12316929548978806,
          0.01928681507706642,
          0.035981684923172,
          0.006809312850236893,
          0.038251280784606934,
          0.13963444530963898,
          0.149510458111763,
          0.1004161611199379,
          0.1357911229133606,
          -0.057618048042058945,
          0.08740409463644028,
          -0.02131727710366249,
          0.05177011340856552,
          0.05442095920443535,
          0.08236805349588394,
          0.11251213401556015,
          0.19303348660469055,
          0.06499695032835007,
          0.16121937334537506,
          -0.06324067711830139,
          0.08314090967178345,
          0.1413307934999466,
          0.1102786511182785,
          0.07786807417869568,
          0.03496333584189415,
          0.13052299618721008,
          0.037907976657152176,
          -0.17187845706939697,
          -0.07420007139444351,
          -0.014944575726985931,
          0.020108211785554886,
          -0.03623237460851669,
          0.015278590843081474,
          -0.03749861195683479,
          0.04107799008488655,
          0.0011324003571644425,
          0.029053660109639168,
          -0.05307970568537712,
          -0.07466911524534225,
          0.009335475042462349,
          0.02169881761074066,
          0.000806191295851022,
          0.1668483167886734,
          -0.020655766129493713,
          0.06552290171384811,
          0.046584658324718475,
          0.04657173529267311,
          0.13132190704345703,
          -0.02638733945786953,
          0.09733157604932785,
          0.034754347056150436,
          -0.0028476084116846323,
          -0.02729889377951622,
          0.08405725657939911,
          -0.05994651839137077,
          -0.11903835088014603,
          -0.161729633808136,
          -0.03677991032600403,
          0.010399769991636276,
          0.03338133916258812,
          -0.033159129321575165,
          -0.0009819937404245138,
          0.02050645276904106,
          0.12146372348070145,
          0.029313651844859123,
          -0.08977068215608597,
          -0.03230449929833412,
          0.014148429967463017,
          -0.04156367853283882,
          -0.042968593537807465,
          -0.03843715414404869,
          0.04931541532278061,
          0.025304602459073067,
          0.09387632459402084,
          0.05125601217150688,
          -0.07641568034887314,
          0.10212422162294388,
          -0.12375027686357498,
          0.02450587786734104,
          -0.010074966587126255,
          0.0152794374153018,
          0.03677883371710777,
          0.08350449055433273,
          0.011392412707209587,
          0.15986371040344238,
          -0.0119329784065485,
          0.14381219446659088,
          0.15278618037700653,
          -0.06791333854198456,
          -0.09709635376930237,
          0.0028574110474437475,
          -0.044490452855825424,
          0.02102036401629448,
          -0.05473227798938751,
          0.10308440029621124,
          0.046606920659542084,
          0.04379718750715256,
          0.05949266999959946,
          0.12329118698835373,
          0.03970421478152275,
          0.07139401137828827,
          -0.04961300641298294,
          -0.08273175358772278,
          -0.024175167083740234,
          0.10912254452705383,
          0.13755623996257782,
          -0.005362882278859615,
          -0.007845382206141949,
          0.08631198108196259,
          0.05867588892579079,
          -0.020232947543263435,
          0.020111864432692528,
          0.03477366268634796,
          -0.024484721943736076,
          0.02931811474263668,
          0.04733764007687569,
          0.06001923978328705,
          -0.012415168806910515,
          0.02029520273208618,
          -0.03947250917553902,
          0.006238548085093498,
          0.03155680373311043,
          -0.020710529759526253,
          0.016661882400512695,
          0.015928193926811218,
          0.0022677017841488123,
          -0.07587607204914093,
          -0.0896264836192131,
          -0.14009375870227814,
          -0.029523739591240883,
          0.0005880173994228244,
          0.04069574177265167,
          -0.10731631517410278,
          -0.058784499764442444,
          -0.07812429964542389,
          -0.08237770944833755,
          0.030115295201539993,
          -0.008040251210331917,
          0.023801706731319427,
          -0.01497008465230465,
          -0.04296089708805084,
          0.08543117344379425,
          -0.05184752494096756,
          0.009139832109212875,
          -0.0028700174298137426,
          0.09047353267669678
        ],
        [
          -0.03537297621369362,
          0.00913761556148529,
          -0.008413671515882015,
          0.02675388753414154,
          0.11598442494869232,
          0.04765228182077408,
          0.043896425515413284,
          0.1564372032880783,
          -0.021953389048576355,
          -0.009668808430433273,
          -0.0029094985220581293,
          0.017999451607465744,
          -0.025334909558296204,
          -0.16630367934703827,
          0.09041321277618408,
          0.09149888902902603,
          0.05225150287151337,
          -0.07314379513263702,
          -0.05049216002225876,
          -0.008392063900828362,
          0.06097715348005295,
          -0.03959544003009796,
          -0.12755116820335388,
          -0.0075547704473137856,
          0.002585657872259617,
          0.002185989636927843,
          0.016991065815091133,
          -0.06482820957899094,
          0.08681733906269073,
          -0.1331387311220169,
